digraph Tree {
node [shape=box, style="filled, rounded", color="black", fontname="helvetica"] ;
edge [fontname="helvetica"] ;
0 [label="alm1 <= 0.575\ngini = 0.735\nsamples = 256\nvalue = [107, 59, 2, 2, 31, 15, 5, 35]\nclass = cp", fillcolor="#f9e0cf"] ;
1 [label="mcg <= 0.615\ngini = 0.501\nsamples = 160\nvalue = [107, 1, 1, 1, 0, 13, 3, 34]\nclass = cp", fillcolor="#f0b68c"] ;
0 -> 1 [labeldistance=2.5, labelangle=45, headlabel="True"] ;
2 [label="gvh <= 0.515\ngini = 0.118\nsamples = 113\nvalue = [106, 1, 0, 0, 0, 2, 0, 4]\nclass = cp", fillcolor="#e78946"] ;
1 -> 2 ;
3 [label="alm2 <= 0.475\ngini = 0.02\nsamples = 99\nvalue = [98, 0, 0, 0, 0, 0, 0, 1]\nclass = cp", fillcolor="#e5823b"] ;
2 -> 3 ;
4 [label="gini = 0.0\nsamples = 82\nvalue = [82, 0, 0, 0, 0, 0, 0, 0]\nclass = cp", fillcolor="#e58139"] ;
3 -> 4 ;
5 [label="mcg <= 0.295\ngini = 0.111\nsamples = 17\nvalue = [16, 0, 0, 0, 0, 0, 0, 1]\nclass = cp", fillcolor="#e78945"] ;
3 -> 5 ;
6 [label="gini = 0.245\nsamples = 7\nvalue = [6, 0, 0, 0, 0, 0, 0, 1]\nclass = cp", fillcolor="#e9965a"] ;
5 -> 6 ;
7 [label="gini = 0.0\nsamples = 10\nvalue = [10, 0, 0, 0, 0, 0, 0, 0]\nclass = cp", fillcolor="#e58139"] ;
5 -> 7 ;
8 [label="mcg <= 0.435\ngini = 0.602\nsamples = 14\nvalue = [8, 1, 0, 0, 0, 2, 0, 3]\nclass = cp", fillcolor="#f3c6a5"] ;
2 -> 8 ;
9 [label="gini = 0.245\nsamples = 7\nvalue = [6, 0, 0, 0, 0, 0, 0, 1]\nclass = cp", fillcolor="#e9965a"] ;
8 -> 9 ;
10 [label="gini = 0.735\nsamples = 7\nvalue = [2, 1, 0, 0, 0, 2, 0, 2]\nclass = cp", fillcolor="#ffffff"] ;
8 -> 10 ;
11 [label="aac <= 0.645\ngini = 0.532\nsamples = 47\nvalue = [1, 0, 1, 1, 0, 11, 3, 30]\nclass = pp", fillcolor="#f196b5"] ;
1 -> 11 ;
12 [label="gvh <= 0.58\ngini = 0.296\nsamples = 36\nvalue = [1, 0, 1, 1, 0, 0, 3, 30]\nclass = pp", fillcolor="#ea5d8c"] ;
11 -> 12 ;
13 [label="gini = 0.741\nsamples = 9\nvalue = [1, 0, 1, 1, 0, 0, 3, 3]\nclass = omL", fillcolor="#ffffff"] ;
12 -> 13 ;
14 [label="gini = 0.0\nsamples = 27\nvalue = [0, 0, 0, 0, 0, 0, 0, 27]\nclass = pp", fillcolor="#e53972"] ;
12 -> 14 ;
15 [label="gini = 0.0\nsamples = 11\nvalue = [0, 0, 0, 0, 0, 11, 0, 0]\nclass = om", fillcolor="#5639e5"] ;
11 -> 15 ;
16 [label="mcg <= 0.615\ngini = 0.53\nsamples = 96\nvalue = [0, 58, 1, 1, 31, 2, 2, 1]\nclass = im", fillcolor="#e8f4ad"] ;
0 -> 16 [labeldistance=2.5, labelangle=-45, headlabel="False"] ;
17 [label="aac <= 0.615\ngini = 0.162\nsamples = 46\nvalue = [0, 42, 0, 0, 3, 1, 0, 0]\nclass = im", fillcolor="#cde74b"] ;
16 -> 17 ;
18 [label="gvh <= 0.58\ngini = 0.056\nsamples = 35\nvalue = [0, 34, 0, 0, 1, 0, 0, 0]\nclass = im", fillcolor="#cae63f"] ;
17 -> 18 ;
19 [label="gini = 0.0\nsamples = 28\nvalue = [0, 28, 0, 0, 0, 0, 0, 0]\nclass = im", fillcolor="#c8e539"] ;
18 -> 19 ;
20 [label="gini = 0.245\nsamples = 7\nvalue = [0, 6, 0, 0, 1, 0, 0, 0]\nclass = im", fillcolor="#d1e95a"] ;
18 -> 20 ;
21 [label="gini = 0.43\nsamples = 11\nvalue = [0, 8, 0, 0, 2, 1, 0, 0]\nclass = im", fillcolor="#daee7b"] ;
17 -> 21 ;
22 [label="mcg <= 0.745\ngini = 0.581\nsamples = 50\nvalue = [0, 16, 1, 1, 28, 1, 2, 1]\nclass = imU", fillcolor="#b9dcf6"] ;
16 -> 22 ;
23 [label="gvh <= 0.535\ngini = 0.669\nsamples = 30\nvalue = [0, 13, 1, 1, 11, 1, 2, 1]\nclass = im", fillcolor="#f9fcea"] ;
22 -> 23 ;
24 [label="mcg <= 0.675\ngini = 0.612\nsamples = 23\nvalue = [0, 9, 1, 1, 11, 0, 1, 0]\nclass = imU", fillcolor="#e3f1fb"] ;
23 -> 24 ;
25 [label="gini = 0.46\nsamples = 10\nvalue = [0, 2, 0, 1, 7, 0, 0, 0]\nclass = imU", fillcolor="#83c2ef"] ;
24 -> 25 ;
26 [label="gini = 0.604\nsamples = 13\nvalue = [0, 7, 1, 0, 4, 0, 1, 0]\nclass = im", fillcolor="#edf6bd"] ;
24 -> 26 ;
27 [label="gini = 0.612\nsamples = 7\nvalue = [0, 4, 0, 0, 0, 1, 1, 1]\nclass = im", fillcolor="#e4f29c"] ;
23 -> 27 ;
28 [label="alm1 <= 0.725\ngini = 0.255\nsamples = 20\nvalue = [0, 3, 0, 0, 17, 0, 0, 0]\nclass = imU", fillcolor="#5caeea"] ;
22 -> 28 ;
29 [label="gini = 0.49\nsamples = 7\nvalue = [0, 3, 0, 0, 4, 0, 0, 0]\nclass = imU", fillcolor="#cee6f8"] ;
28 -> 29 ;
30 [label="gini = 0.0\nsamples = 13\nvalue = [0, 0, 0, 0, 13, 0, 0, 0]\nclass = imU", fillcolor="#399de5"] ;
28 -> 30 ;
}